digraph Tree {
node [shape=box, style="filled, rounded", color="black", fontname="helvetica"] ;
edge [fontname="helvetica"] ;
0 [label="Site EUI (kBtu/ft?) <= 21.0\nfriedman_mse = 1.0\nsamples = 6622\nvalue = 0.019", fillcolor="#f9e1d0"] ;
1 [label="Weather Normalized Site Electricity Intensity (kWh/ft?) <= 4.35\nfriedman_mse = 0.839\nsamples = 267\nvalue = 0.401", fillcolor="#f8dbc6"] ;
0 -> 1 [labeldistance=2.5, labelangle=45, headlabel="True"] ;
2 [label="Largest Property Use Type_Multifamily Housing <= 0.5\nfriedman_mse = 0.483\nsamples = 192\nvalue = 0.719", fillcolor="#f6d6be"] ;
1 -> 2 ;
3 [label="log_Water Intensity (All Water Sources) (gal/ft?) <= 1.794\nfriedman_mse = 0.943\nsamples = 63\nvalue = 0.238", fillcolor="#f8decb"] ;
2 -> 3 ;
4 [label="(...)", fillcolor="#C0C0C0"] ;
3 -> 4 ;
7 [label="(...)", fillcolor="#C0C0C0"] ;
3 -> 7 ;
10 [label="log_Water Intensity (All Water Sources) (gal/ft?) <= 2.662\nfriedman_mse = 0.091\nsamples = 129\nvalue = 0.953", fillcolor="#f6d2b8"] ;
2 -> 10 ;
11 [label="(...)", fillcolor="#C0C0C0"] ;
10 -> 11 ;
12 [label="(...)", fillcolor="#C0C0C0"] ;
10 -> 12 ;
15 [label="Weather Normalized Site Electricity Intensity (kWh/ft?) <= 5.15\nfriedman_mse = 0.829\nsamples = 75\nvalue = -0.413", fillcolor="#fae9dc"] ;
1 -> 15 ;
16 [label="Largest Property Use Type_Multifamily Housing <= 0.5\nfriedman_mse = 0.663\nsamples = 62\nvalue = -0.581", fillcolor="#fbebe0"] ;
15 -> 16 ;
17 [label="(...)", fillcolor="#C0C0C0"] ;
16 -> 17 ;
20 [label="(...)", fillcolor="#C0C0C0"] ;
16 -> 20 ;
23 [label="DOF Gross Floor Area <= 120920.5\nfriedman_mse = 0.852\nsamples = 13\nvalue = 0.385", fillcolor="#f8dbc7"] ;
15 -> 23 ;
24 [label="(...)", fillcolor="#C0C0C0"] ;
23 -> 24 ;
25 [label="(...)", fillcolor="#C0C0C0"] ;
23 -> 25 ;
26 [label="Site EUI (kBtu/ft?) <= 23.05\nfriedman_mse = 1.0\nsamples = 6355\nvalue = 0.003", fillcolor="#f9e2d1"] ;
0 -> 26 [labeldistance=2.5, labelangle=-45, headlabel="False"] ;
27 [label="Weather Normalized Site Electricity Intensity (kWh/ft?) <= 5.65\nfriedman_mse = 0.798\nsamples = 40\nvalue = -0.45", fillcolor="#fbe9dd"] ;
26 -> 27 ;
28 [label="DOF Gross Floor Area <= 98306.5\nfriedman_mse = 0.49\nsamples = 28\nvalue = -0.714", fillcolor="#fbeee4"] ;
27 -> 28 ;
29 [label="(...)", fillcolor="#C0C0C0"] ;
28 -> 29 ;
32 [label="(...)", fillcolor="#C0C0C0"] ;
28 -> 32 ;
33 [label="Weather Normalized Site Electricity Intensity (kWh/ft?) <= 6.25\nfriedman_mse = 0.972\nsamples = 12\nvalue = 0.167", fillcolor="#f8dfcd"] ;
27 -> 33 ;
34 [label="(...)", fillcolor="#C0C0C0"] ;
33 -> 34 ;
35 [label="(...)", fillcolor="#C0C0C0"] ;
33 -> 35 ;
36 [label="Property Id <= 4954476.0\nfriedman_mse = 1.0\nsamples = 6315\nvalue = 0.006", fillcolor="#f9e2d1"] ;
26 -> 36 ;
37 [label="Property Id <= 4898825.5\nfriedman_mse = 1.0\nsamples = 5684\nvalue = -0.003", fillcolor="#f9e2d1"] ;
36 -> 37 ;
38 [label="(...)", fillcolor="#C0C0C0"] ;
37 -> 38 ;
41 [label="(...)", fillcolor="#C0C0C0"] ;
37 -> 41 ;
44 [label="Property Id <= 5029859.0\nfriedman_mse = 0.993\nsamples = 631\nvalue = 0.081", fillcolor="#f9e0cf"] ;
36 -> 44 ;
45 [label="(...)", fillcolor="#C0C0C0"] ;
44 -> 45 ;
48 [label="(...)", fillcolor="#C0C0C0"] ;
44 -> 48 ;
}